svm_type c_svc
kernel_type linear
nr_class 2
total_sv 71
rho -2122.93
label 0 1
nr_sv 35 36
SV
1 1:0 2:0 3:1497 4:5 5:731 6:261379 7:98.23 8:0.01 9:264141 10:0.5 
0.7652817071851655 1:0 2:0 3:987 4:5 5:122 6:6529.3 7:89.94 8:0.07 9:6893 10:0.47 
1 1:0 2:0 3:105 4:6 5:361 6:60937.4 7:94.3 8:0.03 9:63195 10:0.49 
1 1:0 2:0 3:247 4:5 5:194 6:18123.1 7:97.81 8:0.02 9:18313 10:0.49 
0.3680098181673448 1:0 2:0 3:32 4:5 5:539 6:138337 7:95.77 8:0.02 9:142460 10:0.49 
1 1:0 2:0 3:306 4:5 5:758 6:282821 7:98.84 8:0.01 9:284597 10:0.5 
1 1:0 2:0 3:1280 4:5 5:255 6:30917.9 7:96.22 8:0.03 9:31439 10:0.49 
1 1:0 2:0 3:1 4:6 5:447 6:95181.3 7:95.92 8:0.02 9:97635 10:0.49 
1 1:0 2:0 3:49 4:5 5:231 6:22856.8 7:86.79 8:0.06 9:24946 10:0.47 
0.6874228906821245 1:0 2:0 3:151 4:5 5:167 6:13037.8 7:95.2 8:0.04 9:13281 10:0.48 
1 1:0 2:0 3:940 4:5 5:855 6:349689 7:96.01 8:0.02 9:358852 10:0.49 
1 1:0 2:0 3:683 4:5 5:475 6:108866 7:97.11 8:0.02 9:110588 10:0.49 
1 1:0 2:0 3:420 4:5 5:671 6:216520 7:96.61 8:0.02 9:220974 10:0.49 
0.6528032470331856 1:0 2:0 3:313 4:5 5:57 6:1509.5 7:98.02 8:0.05 9:1522 10:0.49 
1 1:0 2:0 3:2717 4:5 5:831 6:338383 7:98.36 8:0.01 9:341154 10:0.5 
1 1:0 2:0 3:9 4:5 5:65 6:1696.85 7:84.17 8:0.1 9:1876 10:0.47 
1 1:0 2:0 3:335 4:5 5:258 6:29260.8 7:88.95 8:0.07 9:30879 10:0.47 
1 1:0 2:0 3:12 4:7 5:274 6:36363.3 7:97.94 8:0.02 9:36794 10:0.5 
1 1:0 2:0 3:562 4:5 5:119 6:5588.16 7:80.95 8:0.1 9:6340 10:0.46 
1 1:0 2:0 3:1461 4:5 5:322 6:47166.9 7:91.84 8:0.02 9:50780 10:0.49 
1 1:0 2:0 3:170 4:5 5:294 6:39642.4 7:92.67 8:0.04 9:41550 10:0.49 
0.2206476562471999 1:0 2:0 3:44 4:4 5:180 6:14861.6 7:93.29 8:0.03 9:15661 10:0.49 
1 1:0 2:0 3:38 4:6 5:82 6:2956.54 7:91.25 8:0.09 9:3036 10:0.47 
1 1:0 2:0 3:1368 4:5 5:209 6:20582.2 7:95.61 8:0.03 9:21092 10:0.49 
1 1:0 2:0 3:903 4:5 5:243 6:27562 7:94.52 8:0.03 9:28498 10:0.49 
1 1:0 2:0 3:1030 4:5 5:699 6:236036 7:97.03 8:0.01 9:240885 10:0.5 
1 1:0 2:0 3:4 4:5 5:154 6:11424.5 7:98.25 8:0.02 9:11510 10:0.49 
0.9829626483730607 1:0 2:0 3:220 4:5 5:95 6:4143.03 7:94.78 8:0.05 9:4239 10:0.48 
1 1:0 2:0 3:134 4:5 5:289 6:38381.5 7:92.87 8:0.03 9:40329 10:0.49 
1 1:0 2:0 3:430 4:5 5:415 6:84621.1 7:98.98 8:0.01 9:84969 10:0.5 
1 1:0 2:0 3:867 4:5 5:288 6:39168 7:95.44 8:0.02 9:40303 10:0.49 
0.9531107955014027 1:0 2:0 3:22 4:6 5:549 6:141358 7:94.32 8:0.02 9:146775 10:0.49 
1 1:0 2:0 3:947 4:5 5:160 6:12180.8 7:96.97 8:0.03 9:12382 10:0.49 
1 1:0 2:0 3:14 4:5 5:907 6:404895 7:98.76 8:0.01 9:407823 10:0.5 
1 1:0 2:0 3:46 4:5 5:197 6:15938.2 7:83.4 8:0.07 9:17908 10:0.47 
-1 1:0 2:0 3:381 4:5 5:900 6:397632 7:98.51 8:0.01 9:400980 10:0.5 
-1 1:0 2:0 3:629 4:5 5:845 6:350408 7:98.5 8:0.01 9:353642 10:0.5 
-0.8241197060248577 1:0 2:0 3:625 4:5 5:77 6:2816.33 7:98.82 8:0.03 9:2824 10:0.5 
-1 1:0 2:0 3:173 4:5 5:622 6:184474 7:95.83 8:0.02 9:189353 10:0.49 
-1 1:0 2:0 3:694 4:5 5:335 6:54004.8 7:97.11 8:0.02 9:54838 10:0.49 
-1 1:0 2:0 3:184 4:6 5:478 6:111885 7:98.55 8:0.01 9:113210 10:0.5 
-1 1:0 2:0 3:488 4:5 5:315 6:47078.6 7:95.8 8:0.03 9:48149 10:0.49 
-1 1:0 2:0 3:83 4:5 5:213 6:20225.1 7:90.43 8:0.07 9:21100 10:0.47 
-1 1:0 2:0 3:487 4:5 5:223 6:21241 7:86.59 8:0.06 9:23383 10:0.48 
-1 1:0 2:0 3:527 4:5 5:77 6:2830.5 7:99.32 8:0.03 9:2837 10:0.5 
-0.3626192062110636 1:0 2:0 3:88 4:5 5:955 6:441841 7:97.2 8:0.01 9:450439 10:0.5 
-1 1:0 2:0 3:195 4:5 5:686 6:223635 7:95.46 8:0.02 9:230361 10:0.49 
-1 1:0 2:0 3:148 4:5 5:714 6:249452 7:98.28 8:0.01 9:251861 10:0.5 
-1 1:0 2:0 3:29 4:4 5:497 6:116529 7:94.92 8:0.02 9:120779 10:0.49 
-1 1:0 2:0 3:15 4:6 5:333 6:53583.4 7:97.52 8:0.02 9:54306 10:0.49 
-0.4341064989561823 1:0 2:0 3:781 4:5 5:251 6:30061.5 7:96.58 8:0.02 9:30616 10:0.49 
-1 1:0 2:0 3:1403 4:5 5:297 6:41728.8 7:95.58 8:0.03 9:42826 10:0.49 
-1 1:0 2:0 3:69 4:6 5:325 6:49975.1 7:95.51 8:0.03 9:51220 10:0.49 
-1 1:0 2:0 3:2277 4:5 5:332 6:51211.9 7:93.77 8:0.03 9:53309 10:0.49 
-1 1:0 2:0 3:374 4:5 5:56 6:1205.1 7:81.15 8:0.12 9:1362 10:0.46 
-0.6409139570750718 1:0 2:0 3:2221 4:5 5:300 6:43159 7:96.88 8:0.02 9:43968 10:0.49 
-1 1:0 2:0 3:1435 4:5 5:775 6:290973 7:97.27 8:0.01 9:296174 10:0.5 
-1 1:0 2:0 3:1025 4:5 5:145 6:9755.34 7:94.75 8:0.04 9:10042 10:0.49 
-1 1:0 2:0 3:838 4:5 5:139 6:8137.73 7:86.09 8:0.08 9:8817 10:0.47 
-1 1:0 2:0 3:86 4:5 5:266 6:31169.8 7:89.11 8:0.03 9:34191 10:0.49 
-1 1:0 2:0 3:368 4:5 5:245 6:28355.6 7:95.65 8:0.03 9:29130 10:0.49 
-0.3408917639406912 1:0 2:0 3:2252 4:5 5:457 6:100045 7:96.44 8:0.02 9:102101 10:0.49 
-1 1:0 2:0 3:83 4:5 5:298 6:42048.1 7:95.66 8:0.03 9:43144 10:0.49 
-1 1:0 2:0 3:354 4:5 5:84 6:3223.35 7:94.72 8:0.06 9:3287 10:0.48 
-1 1:0 2:0 3:663 4:5 5:676 6:222411 7:97.77 8:0.01 9:225707 10:0.5 
-1 1:0 2:0 3:283 4:5 5:40 6:732.5 7:98.85 8:0.06 9:734 10:0.5 
-1 1:0 2:0 3:484 4:5 5:75 6:2650.67 7:98.14 8:0.04 9:2660 10:0.49 
-1 1:0 2:0 3:98 4:6 5:436 6:90494.3 7:95.87 8:0.02 9:92933 10:0.49 
-0.02758763098140791 1:0 2:0 3:112 4:5 5:332 6:51669.8 7:94.61 8:0.03 9:53479 10:0.49 
-1 1:0 2:0 3:931 4:5 5:135 6:8479.96 7:95.16 8:0.04 9:8711 10:0.49 
-1 1:0 2:0 3:13 4:5 5:443 6:92762.5 7:95.18 8:0.02 9:95665 10:0.49 
