svm_type c_svc
kernel_type linear
nr_class 2
total_sv 75
rho -3315.28
label 1 0
nr_sv 39 36
SV
1 1:25 2:0 3:0 4:1 5:0 6:20 7:83 8:24 13:731 14:261379 15:98.23 16:0.01 17:264141 18:0.5 
0.5859527909588036 1:27 2:0 3:0 4:15 5:0 6:22 7:57 8:27 13:332 14:51657.2 15:94.58 16:0.03 17:53320 18:0.49 
1 1:2 2:0 3:0 4:0 5:0 6:0 7:6 8:6 13:194 14:18123.1 15:97.81 16:0.02 17:18313 18:0.49 
1 1:0 2:0 3:0 4:0 5:0 6:0 7:1 8:0 13:539 14:138337 15:95.77 16:0.02 17:142460 18:0.49 
1 1:2 2:0 3:0 4:0 5:0 6:2 7:16 8:7 13:493 14:115837 15:95.9 16:0.02 17:118848 18:0.49 
1 1:9 2:0 3:0 4:0 5:0 6:0 7:11 8:4 13:378 14:67968.2 15:95.9 16:0.02 17:69841 18:0.49 
1 1:2 2:0 3:0 4:2 5:0 6:2 7:2 8:1 13:231 14:22856.8 15:86.79 16:0.06 17:24946 18:0.47 
1 1:0 2:0 3:0 4:0 5:0 6:0 7:1 8:0 13:451 14:98153.1 15:97.16 16:0.02 17:99733 18:0.49 
0.1659018672596995 1:59 2:0 3:0 4:5 5:0 6:23 7:111 8:39 13:317 14:44228.9 15:88.87 16:0.03 17:48360 18:0.49 
1 1:3 2:0 3:0 4:11 5:0 6:13 7:19 8:7 13:459 14:102508 15:97.95 16:0.01 17:103590 18:0.49 
1 1:1 2:0 3:0 4:0 5:0 6:1 7:5 8:2 13:413 14:82803.9 15:97.8 16:0.02 17:83757 18:0.49 
1 1:10 2:0 3:0 4:5 5:0 6:11 7:52 8:18 13:251 14:30061.5 15:96.58 16:0.02 17:30616 18:0.49 
1 1:6 2:0 3:0 4:0 5:0 6:1 7:47 8:25 13:671 14:216520 15:96.61 16:0.02 17:220974 18:0.49 
1 1:86 2:0 3:0 4:108 5:0 6:112 7:105 8:46 13:831 14:338383 15:98.36 16:0.01 17:341154 18:0.5 
1 1:1 2:0 3:0 4:0 5:0 6:0 7:1 8:1 13:274 14:36363.3 15:97.94 16:0.02 17:36794 18:0.5 
1 1:67 2:0 3:0 4:8 5:0 6:26 7:68 8:25 13:300 14:43159 15:96.88 16:0.02 17:43968 18:0.49 
1 1:0 2:0 3:0 4:2 5:0 6:2 7:1 8:2 13:440 14:94264.3 15:98.05 16:0.01 17:95323 18:0.5 
1 1:9 2:0 3:0 4:0 5:0 6:3 7:17 8:5 13:171 14:12680.2 15:88.27 16:0.06 17:13671 18:0.48 
1 1:1 2:0 3:0 4:0 5:0 6:0 7:1 8:1 13:595 14:172875 15:98.16 16:0.01 17:174859 18:0.5 
1 1:4 2:0 3:0 4:21 5:0 6:24 7:14 8:2 13:134 14:8649.25 15:98.53 16:0.02 17:8697 18:0.5 
1 1:7 2:0 3:0 4:1 5:0 6:3 7:21 8:12 13:322 14:50065.9 15:97.48 16:0.02 17:50696 18:0.49 
1 1:35 2:0 3:0 4:0 5:0 6:6 7:84 8:29 13:775 14:290973 15:97.27 16:0.01 17:296174 18:0.5 
1 1:1 2:0 3:0 4:0 5:0 6:0 7:12 8:2 13:236 14:25651.9 15:93.3 16:0.03 17:26805 18:0.49 
1 1:4 2:0 3:0 4:6 5:0 6:10 7:26 8:12 13:216 14:21645 15:94.09 16:0.03 17:22428 18:0.49 
1 1:39 2:0 3:0 4:17 5:0 6:18 7:72 8:23 13:289 14:39253.6 15:94.98 16:0.03 17:40499 18:0.49 
0.8725511961592937 1:12 2:0 3:0 4:9 5:0 6:16 7:25 8:5 13:606 14:177453 15:97.12 16:0.01 17:180788 18:0.49 
1 1:3 2:0 3:0 4:1 5:0 6:1 7:4 8:5 13:298 14:42048.1 15:95.66 16:0.03 17:43144 18:0.49 
1 1:2 2:0 3:0 4:0 5:0 6:0 7:2 8:1 13:127 14:7633 15:96.93 16:0.03 17:7743 18:0.49 
1 1:4 2:0 3:0 4:39 5:0 6:47 7:33 8:10 13:457 14:100985 15:97.34 16:0.01 17:102634 18:0.49 
1 1:2 2:0 3:0 4:0 5:0 6:4 7:28 8:11 13:959 14:441049 15:96.21 16:0.01 17:453251 18:0.49 
0.6697328933856116 1:2 2:0 3:0 4:1 5:0 6:1 7:1 8:0 13:144 14:8951.17 15:88.16 16:0.07 17:9577 18:0.47 
0.08660979506066169 1:4 2:0 3:0 4:1 5:0 6:2 7:30 8:14 13:1350 14:895790 15:98.52 16:0.01 17:904309 18:0.5 
1 1:3 2:0 3:0 4:0 5:0 6:1 7:7 8:3 13:102 14:4359.8 15:86.33 16:0.09 17:4668 18:0.46 
1 1:14 2:0 3:0 4:17 5:0 6:18 7:26 8:11 13:75 14:2650.67 15:98.14 16:0.04 17:2660 18:0.49 
0.6192514571758037 1:12 2:0 3:0 4:1 5:0 6:2 7:28 8:10 13:654 14:207792 15:97.61 16:0.01 17:210797 18:0.5 
1 1:3 2:0 3:0 4:3 5:0 6:3 7:4 8:4 13:332 14:51669.8 15:94.61 16:0.03 17:53479 18:0.49 
1 1:21 2:0 3:0 4:41 5:0 6:44 7:24 8:12 13:135 14:8479.96 15:95.16 16:0.04 17:8711 18:0.49 
1 1:0 2:0 3:0 4:0 5:0 6:0 7:5 8:4 13:278 14:36276 15:94.9 16:0.03 17:37357 18:0.49 
1 1:0 2:0 3:0 4:1 5:0 6:1 7:2 8:0 13:197 14:15938.2 15:83.4 16:0.07 17:17908 18:0.47 
-1 1:6 2:0 3:0 4:0 5:0 6:1 7:12 8:8 13:139 14:9100.53 15:96.27 16:0.04 17:9251 18:0.49 
-1 1:0 2:0 3:0 4:0 5:0 6:0 7:1 8:0 13:149 14:10140.3 15:93.22 16:0.04 17:10581 18:0.49 
-1 1:21 2:0 3:0 4:0 5:0 6:4 7:34 8:14 13:845 14:350408 15:98.5 16:0.01 17:353642 18:0.5 
-1 1:0 2:0 3:0 4:0 5:0 6:0 7:4 8:2 13:313 14:48253.6 15:99.46 16:0.01 17:48356 18:0.5 
-1 1:1 2:0 3:0 4:0 5:0 6:0 7:3 8:0 13:343 14:56515.9 15:96.92 16:0.02 17:57442 18:0.49 
-1 1:5 2:0 3:0 4:1 5:0 6:2 7:4 8:0 13:622 14:184474 15:95.83 16:0.02 17:189353 18:0.49 
-1 1:59 2:0 3:0 4:115 5:0 6:121 7:130 8:63 13:789 14:303058 15:97.74 16:0.01 17:307565 18:0.5 
-1 1:30 2:0 3:0 4:97 5:0 6:97 7:66 8:35 13:255 14:30917.9 15:96.22 16:0.03 17:31439 18:0.49 
-1 1:0 2:0 3:0 4:0 5:0 6:0 7:2 8:0 13:329 14:49454.7 15:92.22 16:0.03 17:52282 18:0.49 
-1 1:3 2:0 3:0 4:0 5:0 6:5 7:8 8:3 13:686 14:223635 15:95.46 16:0.02 17:230361 18:0.49 
-1 1:13 2:0 3:0 4:0 5:0 6:10 7:30 8:9 13:565 14:156458 15:98.55 16:0.01 17:157750 18:0.5 
-1 1:19 2:0 3:0 4:0 5:0 6:4 7:42 8:15 13:464 14:103794 15:97.05 16:0.02 17:105666 18:0.49 
-1 1:1 2:0 3:0 4:2 5:0 6:3 7:0 8:3 13:822 14:325950 15:96.83 16:0.01 17:333695 18:0.5 
-1 1:17 2:0 3:0 4:18 5:0 6:20 7:15 8:10 13:126 14:7710.5 15:99.49 16:0.02 17:7729 18:0.5 
-1 1:0 2:0 3:0 4:0 5:0 6:0 7:2 8:0 13:436 14:90799.3 15:96.19 16:0.02 17:92952 18:0.49 
-1 1:54 2:0 3:0 4:4 5:0 6:11 7:44 8:25 13:297 14:41728.8 15:95.58 16:0.03 17:42826 18:0.49 
-1 1:51 2:0 3:0 4:6 5:0 6:17 7:108 8:45 13:285 14:39451.6 15:98.17 16:0.02 17:39856 18:0.5 
-1 1:1 2:0 3:0 4:0 5:0 6:0 7:1 8:0 13:65 14:1696.85 15:84.17 16:0.1 17:1876 18:0.47 
-1 1:29 2:0 3:0 4:24 5:0 6:27 7:78 8:24 13:265 14:33752.4 15:97.22 16:0.02 17:34425 18:0.5 
-1 1:2 2:0 3:0 4:0 5:0 6:0 7:1 8:2 13:180 14:14861.6 15:93.29 16:0.03 17:15661 18:0.49 
-1 1:26 2:0 3:0 4:29 5:0 6:37 7:82 8:32 13:209 14:20582.2 15:95.61 16:0.03 17:21092 18:0.49 
-1 1:3 2:0 3:0 4:0 5:0 6:1 7:9 8:3 13:477 14:111206 15:98.37 16:0.01 17:112134 18:0.5 
-1 1:4 2:0 3:0 4:2 5:0 6:3 7:21 8:8 13:245 14:28355.6 15:95.65 16:0.03 17:29130 18:0.49 
-1 1:16 2:0 3:0 4:2 5:0 6:4 7:23 8:2 13:159 14:10831.2 15:87.33 16:0.04 17:12050 18:0.49 
-1 1:2 2:0 3:0 4:1 5:0 6:3 7:14 8:6 13:369 14:65119.5 15:96.43 16:0.02 17:66518 18:0.49 
-1 1:16 2:0 3:0 4:0 5:0 6:3 7:30 8:23 13:494 14:117689 15:97.04 16:0.01 17:119963 18:0.49 
-1 1:6 2:0 3:0 4:0 5:0 6:1 7:10 8:4 13:289 14:38381.5 15:92.87 16:0.03 17:40329 18:0.49 
-1 1:5 2:0 3:0 4:1 5:0 6:2 7:6 8:6 13:415 14:84621.1 15:98.98 16:0.01 17:84969 18:0.5 
-1 1:2 2:0 3:0 4:0 5:0 6:1 7:7 8:2 13:381 14:68247.6 15:94.78 16:0.03 17:70505 18:0.49 
-1 1:9 2:0 3:0 4:0 5:0 6:3 7:18 8:7 13:84 14:3223.35 15:94.72 16:0.06 17:3287 18:0.48 
-1 1:5 2:0 3:0 4:0 5:0 6:1 7:10 8:2 13:238 14:27449.6 15:98.15 16:0.01 17:27822 18:0.5 
-1 1:0 2:0 3:0 4:0 5:0 6:0 7:0 8:3 13:542 14:138053 15:94.51 16:0.01 17:145576 18:0.5 
-1 1:7 2:0 3:0 4:0 5:0 6:3 7:20 8:11 13:313 14:45656 15:94.11 16:0.03 17:47527 18:0.49 
-1 1:1 2:0 3:0 4:0 5:0 6:1 7:8 8:5 13:563 14:153582 15:97.43 16:0.01 17:156035 18:0.49 
-1 1:11 2:0 3:0 4:0 5:0 6:0 7:24 8:6 13:99 14:4243.83 15:89.29 16:0.04 17:4660 18:0.49 
-1 1:1 2:0 3:0 4:0 5:0 6:0 7:1 8:2 13:907 14:404895 15:98.76 16:0.01 17:407823 18:0.5 
