svm_type c_svc
kernel_type linear
nr_class 2
total_sv 73
rho -11852.6
label 0 1
nr_sv 37 36
SV
1 1:0 2:0 3:1497 4:5 5:731 6:261379 7:98.23 8:0.01 9:264141 10:0.5 
1 1:0 2:0 3:536 4:6 5:270 6:35195.6 7:97.64 8:0.02 9:35659 10:0.49 
1 1:0 2:0 3:987 4:5 5:122 6:6529.3 7:89.94 8:0.07 9:6893 10:0.47 
1 1:0 2:0 3:21 4:6 5:313 6:48253.6 7:99.46 8:0.01 9:48356 10:0.5 
1 1:0 2:0 3:643 4:5 5:486 6:115531 7:98.43 8:0.01 9:116816 10:0.5 
1 1:0 2:0 3:22 4:4 5:343 6:56515.9 7:96.92 8:0.02 9:57442 10:0.49 
1 1:0 2:0 3:105 4:6 5:361 6:60937.4 7:94.3 8:0.03 9:63195 10:0.49 
1 1:0 2:0 3:418 4:5 5:1225 6:743530 7:99.34 8:0 9:746216 10:0.5 
1 1:0 2:0 3:306 4:5 5:758 6:282821 7:98.84 8:0.01 9:284597 10:0.5 
0.9881290611858994 1:0 2:0 3:2417 4:5 5:789 6:303058 7:97.74 8:0.01 9:307565 10:0.5 
1 1:0 2:0 3:185 4:5 5:493 6:115837 7:95.9 8:0.02 9:118848 10:0.49 
1 1:0 2:0 3:195 4:5 5:686 6:223635 7:95.46 8:0.02 9:230361 10:0.49 
1 1:0 2:0 3:902 4:5 5:565 6:156458 7:98.55 8:0.01 9:157750 10:0.5 
1 1:0 2:0 3:63 4:6 5:413 6:82803.9 7:97.8 8:0.02 9:83757 10:0.49 
0.01212057363264002 1:0 2:0 3:27 4:6 5:374 6:64849.8 7:93.47 8:0.03 9:67740 10:0.49 
0.4526766563492659 1:0 2:0 3:29 4:4 5:497 6:116529 7:94.92 8:0.02 9:120779 10:0.49 
1 1:0 2:0 3:420 4:5 5:671 6:216520 7:96.61 8:0.02 9:220974 10:0.49 
1 1:0 2:0 3:1403 4:5 5:297 6:41728.8 7:95.58 8:0.03 9:42826 10:0.49 
1 1:0 2:0 3:1764 4:5 5:285 6:39451.6 7:98.17 8:0.02 9:39856 10:0.5 
1 1:0 2:0 3:2717 4:5 5:831 6:338383 7:98.36 8:0.01 9:341154 10:0.5 
0.9398922093127851 1:0 2:0 3:3 4:5 5:141 6:8399.66 7:86.33 8:0.07 9:9196 10:0.47 
1 1:0 2:0 3:400 4:5 5:322 6:50065.9 7:97.48 8:0.02 9:50696 10:0.49 
1 1:0 2:0 3:903 4:5 5:243 6:27562 7:94.52 8:0.03 9:28498 10:0.49 
1 1:0 2:0 3:86 4:5 5:266 6:31169.8 7:89.11 8:0.03 9:34191 10:0.49 
1 1:0 2:0 3:39 4:5 5:367 6:46193.6 7:69.16 8:0.06 9:62940 10:0.47 
1 1:0 2:0 3:975 4:5 5:562 6:146858 7:93.49 8:0.02 9:155268 10:0.49 
1 1:0 2:0 3:25 4:5 5:127 6:7633 7:96.93 8:0.03 9:7743 10:0.49 
1 1:0 2:0 3:542 4:5 5:457 6:100985 7:97.34 8:0.01 9:102634 10:0.49 
1 1:0 2:0 3:832 4:5 5:457 6:99059.2 7:95.49 8:0.03 9:101166 10:0.49 
1 1:0 2:0 3:81 4:5 5:381 6:68247.6 7:94.78 8:0.03 9:70505 10:0.49 
1 1:0 2:0 3:354 4:5 5:84 6:3223.35 7:94.72 8:0.06 9:3287 10:0.48 
1 1:0 2:0 3:99 4:5 5:238 6:27449.6 7:98.15 8:0.01 9:27822 10:0.5 
1 1:0 2:0 3:21 4:7 5:542 6:138053 7:94.51 8:0.01 9:145576 10:0.5 
1 1:0 2:0 3:98 4:6 5:436 6:90494.3 7:95.87 8:0.02 9:92933 10:0.49 
1 1:0 2:0 3:112 4:5 5:332 6:51669.8 7:94.61 8:0.03 9:53479 10:0.49 
1 1:0 2:0 3:13 4:5 5:443 6:92762.5 7:95.18 8:0.02 9:95665 10:0.49 
0.5480034815237954 1:0 2:0 3:46 4:5 5:197 6:15938.2 7:83.4 8:0.07 9:17908 10:0.47 
-1 1:0 2:0 3:41 4:4 5:322 6:49274 7:95.94 8:0.02 9:50466 10:0.49 
-1 1:0 2:0 3:858 4:5 5:138 6:8926.11 7:95.81 8:0.04 9:9061 10:0.49 
-1 1:0 2:0 3:32 4:5 5:539 6:138337 7:95.77 8:0.02 9:142460 10:0.49 
-1 1:0 2:0 3:201 4:5 5:378 6:67968.2 7:95.9 8:0.02 9:69841 10:0.49 
-1 1:0 2:0 3:76 4:5 5:174 6:13616.8 7:91.52 8:0.05 9:14360 10:0.48 
-0.6057391724469559 1:0 2:0 3:88 4:5 5:955 6:441841 7:97.2 8:0.01 9:450439 10:0.5 
-1 1:0 2:0 3:27 4:5 5:405 6:78205 7:96.07 8:0.01 9:81253 10:0.5 
-1 1:0 2:0 3:1 4:4 5:451 6:98153.1 7:97.16 8:0.02 9:99733 10:0.49 
-1 1:0 2:0 3:355 4:5 5:241 6:28030.7 7:97.74 8:0.02 9:28314 10:0.49 
-1 1:0 2:0 3:697 4:5 5:464 6:103794 7:97.05 8:0.02 9:105666 10:0.49 
-1 1:0 2:0 3:59 4:5 5:822 6:325950 7:96.83 8:0.01 9:333695 10:0.5 
-1 1:0 2:0 3:686 4:4 5:254 6:29724.9 7:93.25 8:0.04 9:30978 10:0.49 
-1 1:0 2:0 3:683 4:5 5:475 6:108866 7:97.11 8:0.02 9:110588 10:0.49 
-1 1:0 2:0 3:781 4:5 5:251 6:30061.5 7:96.58 8:0.02 9:30616 10:0.49 
-1 1:0 2:0 3:109 4:5 5:295 6:42927.7 7:99.67 8:0.01 9:42998 10:0.5 
-1 1:0 2:0 3:69 4:6 5:325 6:49975.1 7:95.51 8:0.03 9:51220 10:0.49 
-1 1:0 2:0 3:2277 4:5 5:332 6:51211.9 7:93.77 8:0.03 9:53309 10:0.49 
-1 1:0 2:0 3:1884 4:5 5:315 6:48289.7 7:98.27 8:0.02 9:48683 10:0.5 
-0.5283604014807809 1:0 2:0 3:27 4:5 5:595 6:172875 7:98.16 8:0.01 9:174859 10:0.5 
-1 1:0 2:0 3:1435 4:5 5:775 6:290973 7:97.27 8:0.01 9:296174 10:0.5 
-1 1:0 2:0 3:282 4:6 5:535 6:133010 7:93.46 8:0.02 9:139855 10:0.49 
-1 1:0 2:0 3:1030 4:5 5:699 6:236036 7:97.03 8:0.01 9:240885 10:0.5 
-1 1:0 2:0 3:2252 4:5 5:457 6:100045 7:96.44 8:0.02 9:102101 10:0.49 
-1 1:0 2:0 3:159 4:7 5:369 6:65119.5 7:96.43 8:0.02 9:66518 10:0.49 
-1 1:0 2:0 3:526 4:4 5:216 6:21645 7:94.09 8:0.03 9:22428 10:0.49 
-0.8067224080765848 1:0 2:0 3:538 4:5 5:606 6:177453 7:97.12 8:0.01 9:180788 10:0.49 
-1 1:0 2:0 3:1283 4:5 5:290 6:40289.5 7:96.81 8:0.02 9:41037 10:0.49 
-1 1:0 2:0 3:83 4:5 5:298 6:42048.1 7:95.66 8:0.03 9:43144 10:0.49 
-1 1:0 2:0 3:134 4:5 5:289 6:38381.5 7:92.87 8:0.03 9:40329 10:0.49 
-1 1:0 2:0 3:867 4:5 5:288 6:39168 7:95.44 8:0.02 9:40303 10:0.49 
-1 1:0 2:0 3:585 4:5 5:644 6:203058 7:98.38 8:0.01 9:204908 10:0.5 
-1 1:0 2:0 3:883 4:5 5:739 6:267574 7:98.39 8:0.01 9:270029 10:0.5 
-1 1:0 2:0 3:84 4:5 5:1226 6:729549 7:97.31 8:0 9:749015 10:0.5 
-1 1:0 2:0 3:139 4:5 5:563 6:153582 7:97.43 8:0.01 9:156035 10:0.49 
-1 1:0 2:0 3:70 4:5 5:102 6:4359.8 7:86.33 8:0.09 9:4668 10:0.46 
-1 1:0 2:0 3:37 4:5 5:278 6:36276 7:94.9 8:0.03 9:37357 10:0.49 
