svm_type c_svc
kernel_type polynomial
degree 3
gamma 0.0526316
coef0 0
nr_class 2
total_sv 72
rho -911023
label 1 0
nr_sv 32 40
SV
1.008855643874663e-16 1:0 2:0 3:0 4:0 5:25 6:0 7:5 8:83 9:24 10:0 11:0 12:1497 13:5 14:731 15:261379 16:98.23 17:0.01 18:264141 19:0.5 
4.34550086907628e-17 1:0 2:0 3:0 4:0 5:5 6:0 7:0 8:10 9:3 10:0 11:0 12:137 13:5 14:239 15:24116.1 16:85.51 17:0.05 18:26937 19:0.48 
3.568128142940873e-16 1:0 2:0 3:0 4:0 5:20 6:0 7:2 8:61 9:24 10:0 11:0 12:936 13:5 14:196 15:15523.1 16:82.07 17:0.06 18:17982 19:0.48 
2.871204082519829e-13 1:0 2:0 3:0 4:0 5:9 6:0 7:1 8:55 9:19 10:0 11:0 12:632 13:5 14:99 15:4201.5 16:88.4 17:0.03 18:4687 19:0.49 
1.108000836154629e-16 1:0 2:0 3:0 4:0 5:21 6:0 7:1 8:34 9:14 10:0 11:0 12:629 13:5 14:845 15:350408 16:98.5 17:0.01 18:353642 19:0.5 
6.451009502410125e-17 1:0 2:0 3:0 4:0 5:20 6:0 7:2 8:37 9:19 10:0 11:0 12:487 13:5 14:223 15:21241 16:86.59 17:0.06 18:23383 19:0.48 
3.859448480974437e-13 1:0 2:0 3:0 4:0 5:41 6:0 7:5 8:70 9:34 10:0 11:0 12:1534 13:5 14:29 15:334.42 16:88.47 17:0.14 18:348 19:0.46 
1.113723707927755e-17 1:0 2:0 3:0 4:0 5:0 6:0 7:0 8:2 9:0 10:0 11:0 12:18 13:6 14:329 15:49454.7 16:92.22 17:0.03 18:52282 19:0.49 
7.727012743651083e-17 1:0 2:0 3:0 4:0 5:1 6:0 7:2 8:0 9:3 10:0 11:0 12:59 13:5 14:822 15:325950 16:96.83 17:0.01 18:333695 19:0.5 
1.496315263485389e-15 1:0 2:0 3:0 4:0 5:1 6:0 7:1 8:3 9:1 10:0 11:0 12:27 13:6 14:374 15:64849.8 16:93.47 17:0.03 18:67740 19:0.49 
1.695281209092248e-16 1:0 2:0 3:0 4:0 5:25 6:0 7:9 8:31 9:12 10:0 11:0 12:683 13:5 14:475 15:108866 16:97.11 17:0.02 18:110588 19:0.49 
5.048827238093146e-14 1:0 2:0 3:0 4:0 5:9 6:0 7:0 8:32 9:8 10:0 11:0 12:313 13:5 14:57 15:1509.5 16:98.02 17:0.05 18:1522 19:0.49 
3.897620894593881e-15 1:0 2:0 3:0 4:0 5:0 6:0 7:0 8:2 9:0 10:0 11:0 12:6 13:4 14:436 15:90799.3 16:96.19 17:0.02 18:92952 19:0.49 
7.72141051334676e-16 1:0 2:0 3:0 4:0 5:54 6:0 7:10 8:44 9:25 10:0 11:0 12:1403 13:5 14:297 15:41728.8 16:95.58 17:0.03 18:42826 19:0.49 
2.629628105466119e-15 1:0 2:0 3:0 4:0 5:51 6:0 7:15 8:108 9:45 10:0 11:0 12:1764 13:5 14:285 15:39451.6 16:98.17 17:0.02 18:39856 19:0.5 
2.974449619465978e-12 1:0 2:0 3:0 4:0 5:1 6:0 7:0 8:1 9:0 10:0 11:0 12:9 13:5 14:65 15:1696.85 16:84.17 17:0.1 18:1876 19:0.47 
1.050750928659933e-19 1:0 2:0 3:0 4:0 5:21 6:0 7:3 8:27 9:8 10:0 11:0 12:562 13:5 14:119 15:5588.16 16:80.95 17:0.1 18:6340 19:0.46 
3.0562683096045e-14 1:0 2:0 3:0 4:0 5:0 6:0 7:0 8:1 9:0 10:0 11:0 12:3 13:5 14:141 15:8399.66 16:86.33 17:0.07 18:9196 19:0.47 
1.542468736865358e-14 1:0 2:0 3:0 4:0 5:18 6:0 7:35 8:28 9:11 10:0 11:0 12:562 13:5 14:177 15:14043.1 16:91.19 17:0.06 18:14643 19:0.48 
3.165745803240023e-15 1:0 2:0 3:0 4:0 5:0 6:0 7:0 8:4 9:5 10:0 11:0 12:38 13:6 14:82 15:2956.54 16:91.25 17:0.09 18:3036 19:0.47 
1.971561413322337e-15 1:0 2:0 3:0 4:0 5:26 6:0 7:30 8:82 9:32 10:0 11:0 12:1368 13:5 14:209 15:20582.2 16:95.61 17:0.03 18:21092 19:0.49 
1.539643291773423e-21 1:0 2:0 3:0 4:0 5:2 6:0 7:2 8:9 9:2 10:0 11:0 12:48 13:6 14:146 15:9777.14 16:93.65 17:0.05 18:10084 19:0.48 
3.902039378705482e-17 1:0 2:0 3:0 4:0 5:1 6:0 7:1 8:3 9:4 10:0 11:0 12:86 13:5 14:266 15:31169.8 16:89.11 17:0.03 18:34191 19:0.49 
5.064576356379883e-20 1:0 2:0 3:0 4:0 5:16 6:0 7:3 8:23 9:2 10:0 11:0 12:511 13:5 14:159 15:10831.2 16:87.33 17:0.04 18:12050 19:0.49 
4.1532801249235e-17 1:0 2:0 3:0 4:0 5:4 6:0 7:0 8:5 9:0 10:0 11:0 12:132 13:5 14:584 15:164031 16:96.69 17:0.02 18:167499 19:0.49 
1.970482497486854e-10 1:0 2:0 3:0 4:0 5:5 6:0 7:2 8:9 9:1 10:0 11:0 12:92 13:5 14:24 15:225 16:88.93 17:0.13 18:241 19:0.48 
1.906185065460302e-16 1:0 2:0 3:0 4:0 5:1 6:0 7:0 8:15 9:6 10:0 11:0 12:196 13:5 14:361 15:58695.3 16:90.83 17:0.02 18:63826 19:0.49 
1.500623757211484e-15 1:0 2:0 3:0 4:0 5:16 6:0 7:9 8:29 9:9 10:0 11:0 12:832 13:5 14:457 15:99059.2 16:95.49 17:0.03 18:101166 19:0.49 
1.075087854038383e-16 1:0 2:0 3:0 4:0 5:2 6:0 7:0 8:7 9:2 10:0 11:0 12:81 13:5 14:381 15:68247.6 16:94.78 17:0.03 18:70505 19:0.49 
5.300834437538812e-16 1:0 2:0 3:0 4:0 5:0 6:0 7:0 8:0 9:3 10:0 11:0 12:21 13:7 14:542 15:138053 16:94.51 17:0.01 18:145576 19:0.5 
4.916776293506402e-15 1:0 2:0 3:0 4:0 5:7 6:0 7:0 8:20 9:11 10:0 11:0 12:168 13:6 14:313 15:45656 16:94.11 17:0.03 18:47527 19:0.49 
9.59000844321173e-20 1:0 2:0 3:0 4:0 5:1 6:0 7:0 8:1 9:1 10:0 11:0 12:13 13:5 14:443 15:92762.5 16:95.18 17:0.02 18:95665 19:0.49 
-3.167111609343729e-15 1:0 2:0 3:0 4:0 5:5 6:0 7:2 8:11 9:9 10:0 11:0 12:625 13:5 14:77 15:2816.33 16:98.82 17:0.03 18:2824 19:0.5 
-2.890592271732129e-15 1:0 2:0 3:0 4:0 5:0 6:0 7:0 8:4 9:2 10:0 11:0 12:21 13:6 14:313 15:48253.6 16:99.46 17:0.01 18:48356 19:0.5 
-4.465752112206555e-21 1:0 2:0 3:0 4:0 5:20 6:0 7:2 8:32 9:22 10:0 11:0 12:643 13:5 14:486 15:115531 16:98.43 17:0.01 18:116816 19:0.5 
-1.906185065460302e-16 1:0 2:0 3:0 4:0 5:2 6:0 7:0 8:8 9:4 10:0 11:0 12:105 13:6 14:361 15:60937.4 16:94.3 17:0.03 18:63195 19:0.49 
-7.261145542157681e-18 1:0 2:0 3:0 4:0 5:1 6:0 7:1 8:4 9:0 10:0 11:0 12:41 13:4 14:322 15:49274 16:95.94 17:0.02 18:50466 19:0.49 
-3.568122796384418e-16 1:0 2:0 3:0 4:0 5:2 6:0 7:0 8:6 9:6 10:0 11:0 12:247 13:5 14:194 15:18123.1 16:97.81 17:0.02 18:18313 19:0.49 
-1.673362123068033e-12 1:0 2:0 3:0 4:0 5:25 6:0 7:2 8:37 9:11 10:0 11:0 12:988 13:5 14:41 15:762.5 16:97.76 17:0.07 18:765 19:0.49 
-5.446853700792722e-15 1:0 2:0 3:0 4:0 5:25 6:0 7:3 8:21 9:9 10:0 11:0 12:858 13:5 14:138 15:8926.11 16:95.81 17:0.04 18:9061 19:0.49 
-2.036071508346438e-15 1:0 2:0 3:0 4:0 5:6 6:0 7:0 8:5 9:3 10:0 11:0 12:83 13:5 14:213 15:20225.1 16:90.43 17:0.07 18:21100 19:0.47 
-1.542437073002728e-14 1:0 2:0 3:0 4:0 5:2 6:0 7:0 8:4 9:1 10:0 11:0 12:76 13:5 14:174 15:13616.8 16:91.52 17:0.05 18:14360 19:0.48 
-4.283362078634253e-17 1:0 2:0 3:0 4:0 5:11 6:0 7:2 8:24 9:4 10:0 11:0 12:355 13:5 14:241 15:28030.7 16:97.74 17:0.02 18:28314 19:0.49 
-1.934971633060937e-10 1:0 2:0 3:0 4:0 5:0 6:0 7:0 8:0 9:2 10:0 11:0 12:10 13:6 14:36 15:185.71 16:31.21 17:0.4 18:377 19:0.32 
-1.6621224919551e-17 1:0 2:0 3:0 4:0 5:13 6:0 7:1 8:30 9:9 10:0 11:0 12:902 13:5 14:565 15:156458 16:98.55 17:0.01 18:157750 19:0.5 
-4.817024085991745e-16 1:0 2:0 3:0 4:0 5:19 6:0 7:1 8:42 9:15 10:0 11:0 12:697 13:5 14:464 15:103794 16:97.05 17:0.02 18:105666 19:0.49 
-1.0189213486123e-15 1:0 2:0 3:0 4:0 5:3 6:0 7:12 8:19 9:7 10:0 11:0 12:348 13:5 14:459 15:102508 16:97.95 17:0.01 18:103590 19:0.49 
-1.319328562460429e-16 1:0 2:0 3:0 4:0 5:36 6:0 7:2 8:66 9:27 10:0 11:0 12:940 13:5 14:855 15:349689 16:96.01 17:0.02 18:358852 19:0.49 
-6.533557004309398e-18 1:0 2:0 3:0 4:0 5:7 6:0 7:76 8:32 9:11 10:0 11:0 12:686 13:4 14:254 15:29724.9 16:93.25 17:0.04 18:30978 19:0.49 
-6.470821554514987e-20 1:0 2:0 3:0 4:0 5:0 6:0 7:0 8:2 9:1 10:0 11:0 12:29 13:4 14:497 15:116529 16:94.92 17:0.02 18:120779 19:0.49 
-2.634342619184079e-18 1:0 2:0 3:0 4:0 5:0 6:0 7:1 8:1 9:0 10:0 11:0 12:15 13:6 14:333 15:53583.4 16:97.52 17:0.02 18:54306 19:0.49 
-2.847978247789959e-17 1:0 2:0 3:0 4:0 5:1 6:0 7:0 8:1 9:1 10:0 11:0 12:12 13:7 14:274 15:36363.3 16:97.94 17:0.02 18:36794 19:0.5 
-5.323025498368074e-18 1:0 2:0 3:0 4:0 5:29 6:0 7:24 8:78 9:24 10:0 11:0 12:1293 13:5 14:265 15:33752.4 16:97.22 17:0.02 18:34425 19:0.5 
-8.434661696941479e-17 1:0 2:0 3:0 4:0 5:43 6:0 7:3 8:66 9:27 10:0 11:0 12:1884 13:5 14:315 15:48289.7 16:98.27 17:0.02 18:48683 19:0.5 
-9.59000844321173e-20 1:0 2:0 3:0 4:0 5:0 6:0 7:2 8:1 9:2 10:0 11:0 12:24 13:5 14:440 15:94264.3 16:98.05 17:0.01 18:95323 19:0.5 
-2.498864731176876e-14 1:0 2:0 3:0 4:0 5:4 6:0 7:21 8:14 9:2 10:0 11:0 12:419 13:5 14:134 15:8649.25 16:98.53 17:0.02 18:8697 19:0.5 
-1.241748917935789e-18 1:0 2:0 3:0 4:0 5:7 6:0 7:3 8:21 9:12 10:0 11:0 12:400 13:5 14:322 15:50065.9 16:97.48 17:0.02 18:50696 19:0.49 
-2.974449621032959e-12 1:0 2:0 3:0 4:0 5:5 6:0 7:4 8:2 9:2 10:0 11:0 12:182 13:5 14:61 15:1761 16:99.49 17:0.04 18:1761 19:0.5 
-1.044761553376451e-16 1:0 2:0 3:0 4:0 5:35 6:0 7:0 8:84 9:29 10:0 11:0 12:1435 13:5 14:775 15:290973 16:97.27 17:0.01 18:296174 19:0.5 
-2.602605400893032e-17 1:0 2:0 3:0 4:0 5:26 6:0 7:2 8:67 9:26 10:0 11:0 12:1030 13:5 14:699 15:236036 16:97.03 17:0.01 18:240885 19:0.5 
-1.692551572317188e-16 1:0 2:0 3:0 4:0 5:3 6:0 7:0 8:9 9:3 10:0 11:0 12:97 13:5 14:477 15:111206 16:98.37 17:0.01 18:112134 19:0.5 
-1.603677892313092e-15 1:0 2:0 3:0 4:0 5:2 6:0 7:2 8:14 9:6 10:0 11:0 12:159 13:7 14:369 15:65119.5 16:96.43 17:0.02 18:66518 19:0.49 
-2.871202766664413e-13 1:0 2:0 3:0 4:0 5:9 6:0 7:3 8:13 9:6 10:0 11:0 12:220 13:5 14:95 15:4143.03 16:94.78 17:0.05 18:4239 19:0.48 
-5.538913326862764e-17 1:0 2:0 3:0 4:0 5:31 6:0 7:43 8:50 9:18 10:0 11:0 12:1283 13:5 14:290 15:40289.5 16:96.81 17:0.02 18:41037 19:0.49 
-7.72141051334676e-16 1:0 2:0 3:0 4:0 5:3 6:0 7:2 8:4 9:5 10:0 11:0 12:83 13:5 14:298 15:42048.1 16:95.66 17:0.03 18:43144 19:0.49 
-2.574238972197492e-15 1:0 2:0 3:0 4:0 5:6 6:0 7:1 8:10 9:4 10:0 11:0 12:134 13:5 14:289 15:38381.5 16:92.87 17:0.03 18:40329 19:0.49 
-1.941837404804839e-15 1:0 2:0 3:0 4:0 5:7 6:0 7:23 8:16 9:7 10:0 11:0 12:498 13:5 14:306 15:44142.5 16:95.22 17:0.03 18:45388 19:0.49 
-4.535289612657975e-20 1:0 2:0 3:0 4:0 5:2 6:0 7:1 8:1 9:0 10:0 11:0 12:27 13:5 14:144 15:8951.17 16:88.16 17:0.07 18:9577 19:0.47 
-5.549298425868626e-16 1:0 2:0 3:0 4:0 5:1 6:0 7:1 8:8 9:5 10:0 11:0 12:139 13:5 14:563 15:153582 16:97.43 17:0.01 18:156035 19:0.49 
-2.3141828165423e-12 1:0 2:0 3:0 4:0 5:7 6:0 7:1 8:10 9:4 10:0 11:0 12:283 13:5 14:40 15:732.5 16:98.85 17:0.06 18:734 19:0.5 
-3.897620894593881e-15 1:0 2:0 3:0 4:0 5:0 6:0 7:0 8:13 9:4 10:0 11:0 12:98 13:6 14:436 15:90494.3 16:95.87 17:0.02 18:92933 19:0.49 
-1.272400836837696e-16 1:0 2:0 3:0 4:0 5:21 6:0 7:42 8:24 9:12 10:0 11:0 12:931 13:5 14:135 15:8479.96 16:95.16 17:0.04 18:8711 19:0.49 
