svm_type c_svc
kernel_type linear
nr_class 2
total_sv 74
rho 1599.96
label 0 1
nr_sv 37 37
SV
1 1:0 2:0 3:3 4:0 5:3 6:15 7:0 8:1 9:1 10:0 11:0 12:0 13:2 14:0 15:0 16:2 17:7 18:1 19:0 20:2 21:8 22:0 23:0 24:2 25:2 26:10 27:7 28:10 29:0 30:3 31:0 32:3 33:0 34:9 35:10 36:15 37:6 38:6 39:2 40:11 41:9 42:0 43:1 44:13 45:0 46:25 47:0 48:0 49:1 50:0 51:11 52:5 53:83 54:24 55:0 56:0 57:1497 58:5 63:731 64:261379 65:98.23 66:0.01 67:264141 68:0.5 
1 1:0 2:1 3:0 4:0 5:1 6:10 7:0 8:0 9:1 10:0 11:0 12:1 13:0 14:0 15:0 16:6 17:14 18:0 19:0 20:1 21:7 22:0 23:0 24:0 25:1 26:4 27:1 28:13 29:2 30:1 31:4 32:0 33:0 34:4 35:8 36:5 37:6 38:0 39:2 40:4 41:6 42:1 43:2 44:3 45:0 46:20 47:0 48:0 49:2 50:0 51:4 52:2 53:61 54:24 55:0 56:0 57:936 58:5 63:196 64:15523.1 65:82.07 66:0.06 67:17982 68:0.48 
1 1:0 2:0 3:0 4:0 5:1 6:6 7:0 8:1 9:1 10:0 11:0 12:0 13:0 14:0 15:0 16:0 17:0 18:0 19:0 20:1 21:5 22:2 23:0 24:0 25:4 26:1 27:4 28:7 29:0 30:1 31:0 32:2 33:1 34:0 35:0 36:2 37:0 38:6 39:1 40:4 41:2 42:0 43:8 44:0 45:0 46:21 47:0 48:0 49:0 50:0 51:6 52:1 53:34 54:14 55:0 56:0 57:629 58:5 63:845 64:350408 65:98.5 66:0.01 67:353642 68:0.5 
1 1:0 2:0 3:0 4:0 5:0 6:0 7:0 8:0 9:0 10:0 11:0 12:0 13:0 14:0 15:0 16:0 17:0 18:0 19:0 20:0 21:0 22:0 23:0 24:0 25:0 26:0 27:0 28:0 29:0 30:0 31:0 32:0 33:0 34:0 35:0 36:0 37:0 38:0 39:0 40:0 41:0 42:1 43:0 44:0 45:0 46:0 47:0 48:0 49:0 50:0 51:1 52:0 53:4 54:2 55:0 56:0 57:21 58:6 63:313 64:48253.6 65:99.46 66:0.01 67:48356 68:0.5 
1 1:0 2:0 3:0 4:0 5:0 6:2 7:0 8:0 9:1 10:3 11:0 12:0 13:2 14:0 15:0 16:2 17:1 18:0 19:1 20:0 21:0 22:0 23:0 24:0 25:0 26:0 27:0 28:0 29:0 30:0 31:0 32:0 33:0 34:0 35:0 36:0 37:0 38:0 39:0 40:1 41:2 42:0 43:0 44:0 45:0 46:5 47:0 48:0 49:1 50:0 51:2 52:1 53:4 54:0 55:0 56:0 57:173 58:5 63:622 64:184474 65:95.83 66:0.02 67:189353 68:0.49 
1 1:0 2:0 3:0 4:0 5:0 6:11 7:1 8:0 9:0 10:0 11:0 12:1 13:0 14:0 15:0 16:2 17:3 18:1 19:0 20:5 21:5 22:0 23:0 24:0 25:0 26:6 27:7 28:4 29:2 30:0 31:0 32:0 33:0 34:2 35:4 36:5 37:0 38:2 39:0 40:0 41:1 42:0 43:5 44:0 45:0 46:11 47:0 48:0 49:33 50:0 51:3 52:37 53:33 54:11 55:0 56:0 57:694 58:5 63:335 64:54004.8 65:97.11 66:0.02 67:54838 68:0.49 
1 1:0 2:1 3:0 4:0 5:0 6:8 7:0 8:0 9:1 10:0 11:0 12:0 13:0 14:0 15:0 16:0 17:5 18:2 19:0 20:2 21:8 22:1 23:1 24:0 25:0 26:0 27:5 28:6 29:0 30:1 31:0 32:2 33:1 34:1 35:1 36:5 37:4 38:0 39:0 40:2 41:2 42:0 43:0 44:0 45:2 46:25 47:0 48:0 49:2 50:0 51:1 52:3 53:21 54:9 55:0 56:0 57:858 58:5 63:138 64:8926.11 65:95.81 66:0.04 67:9061 68:0.49 
1 1:0 2:1 3:2 4:0 5:0 6:3 7:1 8:0 9:0 10:1 11:0 12:0 13:0 14:0 15:0 16:10 17:1 18:0 19:1 20:2 21:7 22:0 23:1 24:0 25:0 26:3 27:2 28:6 29:2 30:0 31:0 32:0 33:0 34:1 35:4 36:2 37:0 38:0 39:2 40:4 41:3 42:0 43:0 44:0 45:0 46:10 47:0 48:0 49:1 50:0 51:0 52:1 53:41 54:9 55:0 56:0 57:630 58:5 63:628 64:193156 65:98.42 66:0.01 67:194779 68:0.5 
1 1:0 2:0 3:0 4:0 5:0 6:1 7:0 8:0 9:0 10:0 11:0 12:0 13:0 14:0 15:0 16:0 17:0 18:0 19:0 20:1 21:0 22:0 23:0 24:0 25:0 26:1 27:0 28:1 29:0 30:0 31:0 32:0 33:0 34:0 35:0 36:0 37:0 38:0 39:0 40:0 41:0 42:0 43:0 44:0 45:0 46:2 47:0 48:0 49:0 50:0 51:0 52:0 53:3 54:3 55:0 56:0 57:88 58:5 63:955 64:441841 65:97.2 66:0.01 67:450439 68:0.5 
1 1:0 2:0 3:0 4:0 5:0 6:0 7:0 8:0 9:0 10:0 11:0 12:0 13:0 14:0 15:0 16:0 17:3 18:1 19:1 20:0 21:0 22:0 23:0 24:0 25:0 26:2 27:0 28:1 29:0 30:0 31:3 32:0 33:5 34:0 35:0 36:4 37:0 38:0 39:0 40:2 41:4 42:0 43:2 44:0 45:0 46:3 47:0 48:0 49:0 50:0 51:3 52:0 53:8 54:3 55:0 56:0 57:195 58:5 63:686 64:223635 65:95.46 66:0.02 67:230361 68:0.49 
1 1:0 2:0 3:0 4:0 5:0 6:3 7:0 8:0 9:0 10:1 11:0 12:0 13:0 14:0 15:0 16:0 17:0 18:0 19:0 20:1 21:0 22:0 23:2 24:0 25:0 26:0 27:1 28:2 29:0 30:1 31:0 32:0 33:0 34:0 35:0 36:3 37:0 38:0 39:4 40:2 41:1 42:0 43:0 44:0 45:0 46:13 47:0 48:0 49:1 50:0 51:0 52:1 53:8 54:4 55:0 56:0 57:151 58:5 63:167 64:13037.8 65:95.2 66:0.04 67:13281 68:0.48 
1 1:0 2:0 3:0 4:0 5:1 6:4 7:0 8:0 9:0 10:0 11:0 12:0 13:0 14:0 15:0 16:2 17:4 18:0 19:0 20:1 21:1 22:1 23:2 24:0 25:0 26:2 27:1 28:6 29:0 30:0 31:0 32:0 33:0 34:3 35:6 36:2 37:0 38:0 39:0 40:0 41:2 42:0 43:0 44:2 45:0 46:3 47:0 48:0 49:11 50:0 51:3 52:12 53:19 54:7 55:0 56:0 57:348 58:5 63:459 64:102508 65:97.95 66:0.01 67:103590 68:0.49 
1 1:0 2:1 3:1 4:0 5:0 6:17 7:0 8:0 9:0 10:0 11:0 12:1 13:1 14:0 15:1 16:0 17:1 18:0 19:0 20:0 21:5 22:0 23:1 24:0 25:2 26:1 27:5 28:16 29:0 30:1 31:2 32:0 33:6 34:0 35:6 36:6 37:0 38:2 39:0 40:7 41:7 42:0 43:0 44:15 45:0 46:36 47:0 48:0 49:1 50:0 51:2 52:2 53:66 54:27 55:0 56:0 57:940 58:5 63:855 64:349689 65:96.01 66:0.02 67:358852 68:0.49 
1 1:0 2:3 3:0 4:0 5:2 6:18 7:0 8:0 9:0 10:1 11:0 12:0 13:0 14:0 15:11 16:0 17:1 18:2 19:0 20:3 21:7 22:9 23:0 24:0 25:1 26:2 27:8 28:9 29:0 30:2 31:0 32:0 33:0 34:0 35:2 36:8 37:1 38:2 39:1 40:5 41:7 42:1 43:0 44:2 45:0 46:35 47:0 48:0 49:23 50:0 51:8 52:27 53:66 54:25 55:0 56:0 57:1128 58:5 63:1098 64:593081 65:98.66 66:0.01 67:598066 68:0.5 
1 1:0 2:0 3:0 4:0 5:0 6:0 7:0 8:0 9:0 10:0 11:0 12:0 13:0 14:0 15:0 16:0 17:1 18:0 19:0 20:0 21:0 22:0 23:0 24:0 25:0 26:1 27:0 28:0 29:0 30:0 31:0 32:0 33:0 34:0 35:0 36:0 37:0 38:0 39:0 40:0 41:0 42:0 43:0 44:0 45:0 46:0 47:0 48:0 49:1 50:0 51:0 52:1 53:1 54:0 55:0 56:0 57:15 58:6 63:333 64:53583.4 65:97.52 66:0.02 67:54306 68:0.49 
1 1:0 2:0 3:0 4:0 5:0 6:16 7:0 8:0 9:0 10:0 11:0 12:0 13:2 14:0 15:0 16:4 17:0 18:0 19:0 20:2 21:0 22:0 23:0 24:0 25:0 26:0 27:0 28:1 29:0 30:0 31:0 32:0 33:0 34:0 35:0 36:0 37:0 38:0 39:0 40:3 41:0 42:0 43:0 44:0 45:1 46:6 47:0 48:0 49:0 50:0 51:1 52:1 53:47 54:25 55:0 56:0 57:420 58:5 63:671 64:216520 65:96.61 66:0.02 67:220974 68:0.49 
1 1:0 2:0 3:0 4:0 5:0 6:0 7:0 8:0 9:0 10:0 11:0 12:0 13:0 14:0 15:0 16:0 17:0 18:0 19:0 20:0 21:0 22:0 23:0 24:0 25:0 26:0 27:0 28:0 29:0 30:0 31:0 32:0 33:0 34:0 35:0 36:0 37:0 38:0 39:0 40:0 41:0 42:0 43:0 44:0 45:0 46:1 47:0 48:0 49:0 50:0 51:0 52:0 53:1 54:1 55:0 56:0 57:12 58:7 63:274 64:36363.3 65:97.94 66:0.02 67:36794 68:0.5 
1 1:1 2:1 3:4 4:0 5:0 6:20 7:4 8:0 9:1 10:0 11:0 12:3 13:0 14:0 15:3 16:0 17:9 18:0 19:1 20:5 21:14 22:2 23:2 24:0 25:8 26:22 27:9 28:15 29:0 30:3 31:6 32:8 33:2 34:0 35:10 36:11 37:2 38:0 39:1 40:26 41:9 42:0 43:9 44:2 45:0 46:67 47:0 48:0 49:8 50:0 51:11 52:12 53:68 54:25 55:0 56:0 57:2221 58:5 63:300 64:43159 65:96.88 66:0.02 67:43968 68:0.49 
1 1:0 2:2 3:2 4:2 5:1 6:17 7:0 8:0 9:1 10:2 11:0 12:1 13:0 14:0 15:1 16:2 17:5 18:0 19:1 20:6 21:8 22:0 23:0 24:0 25:0 26:4 27:6 28:14 29:4 30:0 31:0 32:3 33:2 34:2 35:6 36:3 37:2 38:0 39:10 40:7 41:2 42:0 43:7 44:0 45:0 46:54 47:0 48:0 49:0 50:0 51:10 52:1 53:53 54:22 55:0 56:0 57:1461 58:5 63:322 64:47166.9 65:91.84 66:0.02 67:50780 68:0.49 
1 1:0 2:0 3:0 4:0 5:0 6:1 7:2 8:0 9:0 10:0 11:0 12:1 13:0 14:0 15:0 16:0 17:1 18:0 19:0 20:1 21:0 22:1 23:0 24:0 25:0 26:0 27:0 28:1 29:0 30:0 31:0 32:1 33:0 34:1 35:2 36:0 37:0 38:0 39:0 40:0 41:0 42:0 43:0 44:0 45:0 46:4 47:0 48:0 49:5 50:0 51:0 52:6 53:7 54:3 55:0 56:0 57:170 58:5 63:294 64:39642.4 65:92.67 66:0.04 67:41550 68:0.49 
1 1:2 2:1 3:0 4:0 5:1 6:3 7:0 8:0 9:0 10:0 11:2 12:0 13:0 14:2 15:1 16:4 17:2 18:0 19:1 20:2 21:4 22:1 23:0 24:0 25:0 26:0 27:2 28:11 29:0 30:0 31:0 32:0 33:2 34:0 35:2 36:1 37:0 38:0 39:0 40:6 41:0 42:0 43:0 44:0 45:0 46:18 47:0 48:0 49:32 50:0 51:0 52:35 53:28 54:11 55:0 56:0 57:562 58:5 63:177 64:14043.1 65:91.19 66:0.06 67:14643 68:0.48 
1 1:0 2:0 3:0 4:0 5:0 6:2 7:0 8:0 9:0 10:0 11:0 12:0 13:0 14:0 15:0 16:0 17:0 18:0 19:0 20:0 21:0 22:0 23:0 24:0 25:0 26:0 27:0 28:0 29:0 30:0 31:0 32:0 33:0 34:0 35:0 36:0 37:0 38:0 39:0 40:0 41:0 42:0 43:0 44:0 45:0 46:0 47:0 48:0 49:0 50:0 51:0 52:0 53:4 54:5 55:0 56:0 57:38 58:6 63:82 64:2956.54 65:91.25 66:0.09 67:3036 68:0.47 
1 1:1 2:0 3:0 4:0 5:3 6:17 7:0 8:0 9:1 10:1 11:2 12:0 13:0 14:0 15:0 16:0 17:6 18:2 19:0 20:4 21:4 22:1 23:0 24:0 25:1 26:2 27:1 28:11 29:0 30:0 31:1 32:0 33:0 34:7 35:4 36:5 37:0 38:2 39:0 40:7 41:6 42:0 43:2 44:0 45:0 46:21 47:0 48:0 49:4 50:0 51:1 52:12 53:38 54:5 55:0 56:0 57:903 58:5 63:243 64:27562 65:94.52 66:0.03 67:28498 68:0.49 
1 1:0 2:0 3:0 4:0 5:0 6:0 7:0 8:0 9:0 10:0 11:0 12:1 13:0 14:0 15:0 16:0 17:0 18:0 19:0 20:1 21:0 22:0 23:0 24:0 25:0 26:0 27:0 28:0 29:0 30:0 31:0 32:0 33:0 34:2 35:0 36:0 37:0 38:0 39:0 40:0 41:0 42:0 43:0 44:0 45:0 46:2 47:0 48:0 49:1 50:0 51:0 52:2 53:9 54:2 55:0 56:0 57:48 58:6 63:146 64:9777.14 65:93.65 66:0.05 67:10084 68:0.48 
1 1:0 2:1 3:4 4:0 5:2 6:10 7:1 8:0 9:1 10:1 11:0 12:1 13:2 14:0 15:1 16:6 17:4 18:0 19:0 20:3 21:4 22:1 23:0 24:0 25:2 26:1 27:6 28:15 29:0 30:1 31:0 32:3 33:2 34:7 35:4 36:2 37:2 38:2 39:2 40:3 41:4 42:0 43:5 44:2 45:0 46:26 47:0 48:0 49:0 50:0 51:11 52:2 53:67 54:26 55:0 56:0 57:1030 58:5 63:699 64:236036 65:97.03 66:0.01 67:240885 68:0.5 
0.6810348314395631 1:1 2:0 3:0 4:0 5:0 6:6 7:2 8:0 9:0 10:0 11:0 12:0 13:0 14:0 15:0 16:0 17:3 18:0 19:2 20:2 21:2 22:0 23:0 24:0 25:0 26:0 27:2 28:5 29:6 30:0 31:0 32:1 33:0 34:0 35:0 36:1 37:0 38:2 39:0 40:5 41:0 42:0 43:0 44:0 45:0 46:16 47:0 48:0 49:2 50:0 51:11 52:3 53:23 54:2 55:0 56:0 57:511 58:5 63:159 64:10831.2 65:87.33 66:0.04 67:12050 68:0.49 
1 1:0 2:0 3:0 4:0 5:0 6:5 7:0 8:0 9:0 10:0 11:0 12:0 13:0 14:0 15:0 16:0 17:0 18:0 19:0 20:0 21:0 22:0 23:0 24:0 25:0 26:0 27:0 28:3 29:0 30:0 31:0 32:0 33:0 34:4 35:0 36:0 37:0 38:0 39:0 40:0 41:0 42:0 43:0 44:0 45:2 46:2 47:0 48:0 49:1 50:0 51:0 52:2 53:14 54:6 55:0 56:0 57:159 58:7 63:369 64:65119.5 65:96.43 66:0.02 67:66518 68:0.49 
1 1:0 2:0 3:0 4:0 5:0 6:8 7:0 8:0 9:0 10:0 11:0 12:0 13:0 14:0 15:0 16:2 17:0 18:0 19:0 20:1 21:2 22:1 23:0 24:0 25:0 26:5 27:0 28:1 29:0 30:0 31:0 32:4 33:0 34:0 35:8 36:0 37:0 38:0 39:0 40:0 41:0 42:0 43:0 44:2 45:0 46:4 47:0 48:0 49:0 50:0 51:0 52:0 53:5 54:0 55:0 56:0 57:132 58:5 63:584 64:164031 65:96.69 66:0.02 67:167499 68:0.49 
0.2742768250364332 1:0 2:1 3:0 4:0 5:0 6:4 7:0 8:0 9:0 10:0 11:0 12:0 13:0 14:0 15:0 16:0 17:0 18:0 19:0 20:1 21:2 22:0 23:2 24:0 25:2 26:2 27:1 28:11 29:0 30:0 31:2 32:0 33:1 34:0 35:0 36:1 37:0 38:0 39:0 40:1 41:0 42:0 43:0 44:0 45:0 46:12 47:0 48:0 49:9 50:0 51:6 52:12 53:25 54:5 55:0 56:0 57:538 58:5 63:606 64:177453 65:97.12 66:0.01 67:180788 68:0.49 
1 1:2 2:0 3:0 4:0 5:0 6:22 7:0 8:0 9:2 10:0 11:0 12:1 13:0 14:2 15:0 16:2 17:7 18:0 19:0 20:1 21:3 22:0 23:0 24:0 25:0 26:3 27:1 28:15 29:0 30:0 31:0 32:3 33:1 34:0 35:0 36:1 37:0 38:0 39:0 40:4 41:2 42:0 43:2 44:4 45:0 46:31 47:0 48:0 49:43 50:0 51:3 52:43 53:50 54:18 55:0 56:0 57:1283 58:5 63:290 64:40289.5 65:96.81 66:0.02 67:41037 68:0.49 
1 1:0 2:0 3:0 4:0 5:0 6:2 7:0 8:0 9:0 10:0 11:0 12:0 13:0 14:0 15:0 16:0 17:0 18:0 19:0 20:0 21:4 22:0 23:0 24:0 25:0 26:2 27:0 28:0 29:0 30:0 31:0 32:0 33:0 34:0 35:0 36:0 37:0 38:0 39:0 40:1 41:0 42:0 43:1 44:0 45:0 46:6 47:0 48:0 49:0 50:0 51:0 52:1 53:10 54:4 55:0 56:0 57:134 58:5 63:289 64:38381.5 65:92.87 66:0.03 67:40329 68:0.49 
1 1:0 2:2 3:2 4:0 5:0 6:20 7:4 8:0 9:4 10:0 11:0 12:0 13:0 14:0 15:0 16:0 17:3 18:0 19:0 20:4 21:3 22:2 23:1 24:0 25:0 26:3 27:1 28:10 29:0 30:0 31:0 32:0 33:0 34:2 35:0 36:2 37:2 38:0 39:0 40:0 41:3 42:0 43:0 44:1 45:0 46:16 47:0 48:0 49:9 50:0 51:5 52:9 53:29 54:9 55:0 56:0 57:832 58:5 63:457 64:99059.2 65:95.49 66:0.03 67:101166 68:0.49 
1 1:0 2:1 3:0 4:0 5:0 6:6 7:0 8:0 9:0 10:1 11:0 12:0 13:0 14:0 15:0 16:0 17:0 18:0 19:0 20:0 21:0 22:1 23:0 24:0 25:0 26:0 27:0 28:3 29:0 30:0 31:0 32:0 33:0 34:3 35:2 36:0 37:4 38:2 39:0 40:1 41:2 42:7 43:0 44:0 45:3 46:2 47:0 48:0 49:0 50:0 51:1 52:0 53:28 54:11 55:0 56:0 57:216 58:5 63:959 64:441049 65:96.21 66:0.01 67:453251 68:0.49 
1 1:0 2:0 3:0 4:0 5:0 6:1 7:0 8:0 9:2 10:0 11:0 12:0 13:0 14:0 15:1 16:0 17:2 18:0 19:0 20:1 21:3 22:0 23:0 24:0 25:0 26:2 27:0 28:0 29:0 30:0 31:0 32:0 33:0 34:0 35:2 36:1 37:0 38:0 39:0 40:0 41:0 42:0 43:0 44:0 45:0 46:5 47:0 48:0 49:0 50:0 51:1 52:1 53:10 54:2 55:0 56:0 57:99 58:5 63:238 64:27449.6 65:98.15 66:0.01 67:27822 68:0.5 
1 1:0 2:0 3:0 4:0 5:0 6:11 7:0 8:0 9:0 10:0 11:0 12:0 13:2 14:0 15:0 16:6 17:1 18:0 19:0 20:1 21:0 22:0 23:0 24:0 25:1 26:0 27:0 28:5 29:0 30:2 31:0 32:0 33:2 34:0 35:6 36:1 37:0 38:2 39:0 40:3 41:0 42:0 43:3 44:2 45:0 46:4 47:0 48:0 49:1 50:0 51:2 52:1 53:30 54:14 55:0 56:0 57:346 58:5 63:1350 64:895790 65:98.52 66:0.01 67:904309 68:0.5 
1 1:1 2:0 3:0 4:0 5:0 6:2 7:1 8:0 9:0 10:0 11:0 12:1 13:0 14:0 15:0 16:0 17:3 18:0 19:4 20:5 21:5 22:0 23:0 24:0 25:0 26:0 27:2 28:9 29:6 30:0 31:0 32:3 33:1 34:2 35:4 36:1 37:0 38:0 39:0 40:4 41:0 42:0 43:4 44:2 45:0 46:14 47:0 48:0 49:17 50:0 51:14 52:18 53:26 54:11 55:0 56:0 57:484 58:5 63:75 64:2650.67 65:98.14 66:0.04 67:2660 68:0.49 
1 1:0 2:0 3:0 4:0 5:0 6:0 7:0 8:0 9:0 10:0 11:0 12:0 13:0 14:0 15:0 16:0 17:2 18:0 19:0 20:0 21:1 22:0 23:0 24:0 25:0 26:0 27:0 28:1 29:0 30:0 31:0 32:0 33:0 34:0 35:0 36:0 37:0 38:0 39:0 40:0 41:0 42:0 43:0 44:0 45:0 46:0 47:0 48:0 49:1 50:0 51:0 52:1 53:2 54:0 55:0 56:0 57:46 58:5 63:197 64:15938.2 65:83.4 66:0.07 67:17908 68:0.47 
-1 1:0 2:3 3:0 4:0 5:0 6:9 7:0 8:0 9:0 10:1 11:0 12:0 13:2 14:0 15:0 16:0 17:1 18:1 19:0 20:7 21:0 22:0 23:2 24:0 25:0 26:0 27:0 28:6 29:0 30:0 31:3 32:0 33:7 34:0 35:6 36:2 37:0 38:0 39:0 40:1 41:2 42:0 43:4 44:1 45:0 46:5 47:0 48:0 49:1 50:0 51:3 52:2 53:11 54:9 55:0 56:0 57:625 58:5 63:77 64:2816.33 65:98.82 66:0.03 67:2824 68:0.5 
-1 1:0 2:0 3:0 4:0 5:0 6:0 7:0 8:0 9:0 10:0 11:0 12:0 13:0 14:0 15:0 16:0 17:2 18:0 19:0 20:0 21:0 22:0 23:0 24:0 25:0 26:0 27:0 28:0 29:0 30:0 31:0 32:0 33:0 34:0 35:2 36:0 37:0 38:0 39:0 40:0 41:0 42:0 43:0 44:0 45:0 46:1 47:0 48:0 49:0 50:0 51:0 52:1 53:3 54:0 55:0 56:0 57:22 58:4 63:343 64:56515.9 65:96.92 66:0.02 67:57442 68:0.49 
-0.9671168615158092 1:0 2:0 3:1 4:0 5:0 6:4 7:0 8:0 9:0 10:0 11:0 12:0 13:0 14:0 15:0 16:0 17:2 18:0 19:0 20:1 21:0 22:0 23:0 24:0 25:0 26:0 27:3 28:2 29:2 30:0 31:0 32:0 33:0 34:2 35:0 36:1 37:0 38:2 39:0 40:3 41:2 42:0 43:0 44:0 45:0 46:5 47:0 48:0 49:0 50:0 51:4 52:0 53:11 54:2 55:0 56:0 57:279 58:5 63:385 64:62433.4 65:84.9 66:0.02 67:72697 68:0.49 
-1 1:1 2:0 3:2 4:0 5:0 6:40 7:0 8:0 9:0 10:0 11:0 12:7 13:0 14:0 15:3 16:6 17:7 18:3 19:2 20:14 21:18 22:0 23:2 24:0 25:4 26:17 27:3 28:33 29:0 30:6 31:4 32:4 33:3 34:2 35:12 36:11 37:0 38:4 39:0 40:21 41:6 42:0 43:9 44:6 45:0 46:59 47:0 48:0 49:115 50:0 51:14 52:126 53:130 54:63 55:0 56:0 57:2417 58:5 63:789 64:303058 65:97.74 66:0.01 67:307565 68:0.5 
-1 1:0 2:0 3:0 4:0 5:0 6:1 7:0 8:0 9:0 10:0 11:0 12:0 13:0 14:0 15:0 16:0 17:0 18:0 19:0 20:0 21:0 22:0 23:0 24:0 25:0 26:0 27:0 28:1 29:0 30:0 31:0 32:0 33:0 34:0 35:0 36:0 37:2 38:0 39:0 40:0 41:0 42:0 43:0 44:0 45:0 46:2 47:0 48:0 49:2 50:0 51:0 52:2 53:2 54:1 55:0 56:0 57:49 58:5 63:231 64:22856.8 65:86.79 66:0.06 67:24946 68:0.47 
-1 1:0 2:0 3:0 4:0 5:0 6:5 7:0 8:0 9:2 10:0 11:0 12:0 13:2 14:0 15:0 16:0 17:8 18:0 19:0 20:2 21:4 22:0 23:0 24:0 25:0 26:1 27:1 28:3 29:0 30:0 31:0 32:0 33:0 34:1 35:6 36:5 37:2 38:0 39:0 40:0 41:3 42:0 43:0 44:2 45:0 46:11 47:0 48:0 49:2 50:0 51:3 52:2 53:24 54:4 55:0 56:0 57:355 58:5 63:241 64:28030.7 65:97.74 66:0.02 67:28314 68:0.49 
-1 1:1 2:1 3:0 4:0 5:0 6:8 7:0 8:0 9:0 10:1 11:0 12:0 13:0 14:0 15:0 16:4 17:2 18:1 19:0 20:5 21:4 22:1 23:0 24:0 25:0 26:5 27:3 28:10 29:0 30:0 31:0 32:2 33:0 34:1 35:2 36:4 37:0 38:4 39:2 40:0 41:1 42:0 43:0 44:0 45:0 46:19 47:0 48:0 49:0 50:0 51:3 52:1 53:42 54:15 55:0 56:0 57:697 58:5 63:464 64:103794 65:97.05 66:0.02 67:105666 68:0.49 
-1 1:0 2:0 3:0 4:0 5:0 6:0 7:0 8:0 9:0 10:1 11:0 12:0 13:0 14:0 15:0 16:0 17:0 18:0 19:0 20:0 21:0 22:0 23:0 24:0 25:0 26:0 27:3 28:0 29:0 30:0 31:0 32:0 33:1 34:0 35:0 36:0 37:0 38:0 39:0 40:0 41:0 42:0 43:0 44:0 45:0 46:1 47:0 48:0 49:2 50:0 51:1 52:2 53:0 54:3 55:0 56:0 57:59 58:5 63:822 64:325950 65:96.83 66:0.01 67:333695 68:0.5 
-1 1:0 2:0 3:0 4:0 5:1 6:1 7:0 8:0 9:0 10:0 11:0 12:0 13:0 14:0 15:2 16:0 17:0 18:0 19:0 20:0 21:0 22:0 23:0 24:0 25:0 26:0 27:0 28:2 29:0 30:0 31:0 32:0 33:0 34:0 35:0 36:2 37:0 38:0 39:0 40:1 41:3 42:0 43:0 44:0 45:1 46:5 47:0 48:0 49:0 50:0 51:0 52:2 53:14 54:4 55:0 56:0 57:148 58:5 63:714 64:249452 65:98.28 66:0.01 67:251861 68:0.5 
-1 1:0 2:0 3:0 4:0 5:0 6:1 7:0 8:0 9:0 10:0 11:0 12:0 13:0 14:0 15:0 16:0 17:0 18:0 19:0 20:1 21:0 22:0 23:0 24:0 25:0 26:1 27:0 28:0 29:0 30:0 31:0 32:0 33:0 34:0 35:0 36:1 37:0 38:0 39:0 40:2 41:0 42:0 43:0 44:0 45:0 46:6 47:0 48:0 49:0 50:0 51:1 52:1 53:7 54:3 55:0 56:0 57:109 58:5 63:295 64:42927.7 65:99.67 66:0.01 67:42998 68:0.5 
-1 1:0 2:0 3:0 4:0 5:0 6:0 7:0 8:0 9:0 10:0 11:0 12:0 13:0 14:0 15:0 16:0 17:0 18:0 19:0 20:0 21:0 22:0 23:0 24:0 25:0 26:0 27:0 28:1 29:0 30:0 31:0 32:0 33:0 34:0 35:0 36:0 37:0 38:0 39:0 40:0 41:0 42:0 43:0 44:0 45:0 46:0 47:0 48:0 49:0 50:0 51:0 52:0 53:2 54:0 55:0 56:0 57:6 58:4 63:436 64:90799.3 65:96.19 66:0.02 67:92952 68:0.49 
-1 1:0 2:0 3:0 4:0 5:0 6:0 7:0 8:0 9:0 10:0 11:0 12:0 13:0 14:0 15:0 16:0 17:2 18:0 19:0 20:0 21:0 22:0 23:0 24:0 25:0 26:0 27:0 28:0 29:0 30:0 31:0 32:0 33:0 34:0 35:6 36:1 37:0 38:0 39:0 40:0 41:0 42:0 43:2 44:0 45:0 46:1 47:0 48:0 49:0 50:0 51:2 52:0 53:2 54:2 55:0 56:0 57:69 58:6 63:325 64:49975.1 65:95.51 66:0.03 67:51220 68:0.49 
-1 1:0 2:0 3:1 4:0 5:0 6:2 7:2 8:0 9:0 10:1 11:0 12:0 13:1 14:0 15:0 16:0 17:0 18:0 19:0 20:3 21:1 22:0 23:0 24:0 25:0 26:0 27:1 28:1 29:0 30:0 31:2 32:0 33:0 34:0 35:2 36:1 37:0 38:2 39:4 40:0 41:0 42:0 43:1 44:0 45:0 46:4 47:0 48:0 49:0 50:0 51:2 52:0 53:6 54:4 55:0 56:0 57:127 58:5 63:1118 64:614830 65:98.64 66:0 67:622150 68:0.5 
-0.3831058439411066 1:0 2:1 3:3 4:0 5:1 6:30 7:0 8:0 9:2 10:1 11:0 12:2 13:2 14:5 15:1 16:0 17:12 18:2 19:2 20:8 21:13 22:5 23:0 24:6 25:0 26:12 27:5 28:24 29:0 30:0 31:2 32:2 33:5 34:4 35:4 36:16 37:4 38:0 39:1 40:7 41:7 42:0 43:4 44:12 45:1 46:72 47:0 48:0 49:63 50:0 51:11 52:73 53:112 54:47 55:0 56:0 57:2277 58:5 63:332 64:51211.9 65:93.77 66:0.03 67:53309 68:0.49 
-1 1:0 2:3 3:2 4:0 5:1 6:29 7:0 8:0 9:0 10:1 11:0 12:7 13:0 14:2 15:0 16:8 17:9 18:1 19:0 20:6 21:9 22:0 23:3 24:8 25:2 26:17 27:4 28:23 29:0 30:1 31:3 32:3 33:5 34:2 35:14 36:16 37:0 38:0 39:9 40:14 41:5 42:0 43:7 44:18 45:0 46:43 47:0 48:0 49:2 50:0 51:12 52:3 53:66 54:27 55:0 56:0 57:1884 58:5 63:315 64:48289.7 65:98.27 66:0.02 67:48683 68:0.5 
-1 1:0 2:0 3:0 4:0 5:0 6:4 7:0 8:0 9:0 10:0 11:0 12:0 13:0 14:0 15:0 16:2 17:0 18:0 19:0 20:1 21:1 22:0 23:0 24:0 25:0 26:1 27:0 28:3 29:0 30:0 31:0 32:0 33:1 34:2 35:0 36:2 37:0 38:0 39:0 40:0 41:1 42:0 43:2 44:0 45:0 46:9 47:0 48:0 49:0 50:0 51:3 52:0 53:17 54:5 55:0 56:0 57:273 58:5 63:171 64:12680.2 65:88.27 66:0.06 67:13671 68:0.48 
-1 1:0 2:0 3:0 4:0 5:0 6:1 7:0 8:0 9:0 10:0 11:0 12:0 13:0 14:0 15:1 16:0 17:0 18:0 19:0 20:0 21:0 22:0 23:0 24:0 25:0 26:0 27:0 28:0 29:0 30:0 31:0 32:0 33:0 34:0 35:0 36:0 37:0 38:0 39:0 40:0 41:0 42:0 43:0 44:0 45:0 46:0 47:0 48:0 49:0 50:0 51:0 52:1 53:2 54:0 55:0 56:0 57:15 58:5 63:277 64:36015.4 65:94.9 66:0.03 67:36920 68:0.49 
-1 1:0 2:0 3:0 4:0 5:0 6:1 7:0 8:0 9:0 10:1 11:0 12:0 13:0 14:0 15:0 16:0 17:0 18:0 19:0 20:0 21:1 22:0 23:0 24:0 25:0 26:0 27:0 28:0 29:0 30:0 31:0 32:0 33:0 34:0 35:0 36:0 37:0 38:0 39:0 40:0 41:0 42:0 43:0 44:0 45:0 46:2 47:0 48:0 49:0 50:0 51:0 52:0 53:1 54:2 55:0 56:0 57:44 58:4 63:180 64:14861.6 65:93.29 66:0.03 67:15661 68:0.49 
-0.6613731336247798 1:0 2:1 3:0 4:0 5:0 6:1 7:0 8:0 9:0 10:0 11:0 12:1 13:0 14:0 15:0 16:0 17:5 18:0 19:3 20:1 21:3 22:0 23:0 24:0 25:0 26:0 27:1 28:9 29:2 30:1 31:0 32:0 33:0 34:0 35:0 36:0 37:0 38:0 39:1 40:1 41:0 42:0 43:0 44:0 45:0 46:7 47:0 48:0 49:1 50:0 51:5 52:3 53:21 54:12 55:0 56:0 57:400 58:5 63:322 64:50065.9 65:97.48 66:0.02 67:50696 68:0.49 
-1 1:1 2:0 3:1 4:0 5:0 6:44 7:3 8:0 9:3 10:2 11:4 12:1 13:6 14:4 15:0 16:8 17:11 18:2 19:0 20:10 21:14 22:0 23:1 24:4 25:0 26:12 27:3 28:29 29:2 30:0 31:3 32:5 33:21 34:4 35:20 36:11 37:0 38:4 39:6 40:11 41:4 42:0 43:12 44:5 45:0 46:100 47:0 48:0 49:18 50:0 51:19 52:20 53:152 54:67 55:0 56:0 57:2663 58:5 63:294 64:40662.7 65:95.06 66:0.03 67:41888 68:0.49 
-1 1:0 2:0 3:0 4:0 5:0 6:3 7:0 8:0 9:0 10:0 11:0 12:0 13:0 14:0 15:2 16:0 17:0 18:0 19:0 20:5 21:1 22:0 23:0 24:0 25:0 26:1 27:3 28:3 29:0 30:0 31:0 32:0 33:0 34:0 35:0 36:1 37:0 38:0 39:2 40:0 41:1 42:0 43:3 44:2 45:0 46:14 47:0 48:0 49:0 50:0 51:2 52:1 53:30 54:6 55:0 56:0 57:282 58:6 63:535 64:133010 65:93.46 66:0.02 67:139855 68:0.49 
-0.9437158173942746 1:0 2:8 3:0 4:0 5:0 6:25 7:1 8:0 9:4 10:3 11:0 12:5 13:2 14:0 15:0 16:0 17:4 18:0 19:1 20:14 21:3 22:0 23:0 24:2 25:0 26:6 27:13 28:35 29:0 30:0 31:1 32:2 33:4 34:0 35:8 36:22 37:0 38:0 39:0 40:8 41:7 42:0 43:4 44:24 45:3 46:58 47:0 48:0 49:11 50:0 51:11 52:11 53:54 54:19 55:0 56:0 57:2252 58:5 63:457 64:100045 65:96.44 66:0.02 67:102101 68:0.49 
-1 1:0 2:0 3:0 4:0 5:0 6:0 7:0 8:0 9:0 10:0 11:0 12:0 13:0 14:0 15:0 16:0 17:0 18:0 19:0 20:0 21:1 22:0 23:0 24:0 25:0 26:0 27:0 28:0 29:0 30:0 31:0 32:0 33:0 34:0 35:0 36:0 37:0 38:0 39:0 40:0 41:0 42:0 43:0 44:0 45:0 46:0 47:0 48:0 49:0 50:0 51:0 52:0 53:1 54:0 55:0 56:0 57:4 58:5 63:154 64:11424.5 65:98.25 66:0.02 67:11510 68:0.49 
-1 1:0 2:0 3:0 4:0 5:0 6:3 7:0 8:0 9:0 10:1 11:0 12:0 13:0 14:0 15:0 16:0 17:2 18:0 19:1 20:0 21:0 22:1 23:0 24:2 25:0 26:3 27:0 28:4 29:0 30:0 31:0 32:0 33:0 34:0 35:0 36:3 37:0 38:0 39:0 40:0 41:2 42:0 43:0 44:0 45:0 46:2 47:0 48:0 49:2 50:0 51:1 52:2 53:3 54:4 55:0 56:0 57:152 58:5 63:1323 64:871606 65:99.82 66:0 67:872305 68:0.5 
-1 1:0 2:0 3:0 4:0 5:0 6:1 7:0 8:0 9:0 10:0 11:0 12:0 13:2 14:0 15:0 16:0 17:0 18:0 19:0 20:0 21:0 22:0 23:0 24:0 25:0 26:0 27:0 28:5 29:0 30:0 31:0 32:0 33:0 34:0 35:0 36:0 37:0 38:0 39:0 40:0 41:1 42:0 43:0 44:0 45:0 46:0 47:0 48:0 49:2 50:0 51:0 52:2 53:5 54:3 55:0 56:0 57:115 58:4 63:962 64:446252 65:96.74 66:0.01 67:456202 68:0.49 
-1 1:0 2:0 3:0 4:0 5:0 6:3 7:0 8:0 9:0 10:1 11:0 12:0 13:0 14:0 15:1 16:2 17:5 18:0 19:0 20:0 21:3 22:1 23:1 24:0 25:1 26:4 27:1 28:2 29:2 30:0 31:0 32:1 33:1 34:0 35:0 36:2 37:0 38:0 39:0 40:3 41:1 42:0 43:4 44:0 45:12 46:4 47:0 48:0 49:6 50:0 51:1 52:7 53:26 54:12 55:0 56:0 57:526 58:4 63:216 64:21645 65:94.09 66:0.03 67:22428 68:0.49 
-1 1:1 2:2 3:0 4:0 5:3 6:0 7:0 8:0 9:1 10:0 11:0 12:3 13:1 14:0 15:0 16:2 17:1 18:0 19:2 20:6 21:3 22:0 23:0 24:0 25:0 26:5 27:2 28:5 29:2 30:0 31:0 32:0 33:1 34:2 35:2 36:0 37:2 38:0 39:0 40:2 41:0 42:0 43:2 44:0 45:0 46:16 47:0 48:0 49:31 50:0 51:19 52:31 53:37 54:20 55:0 56:0 57:975 58:5 63:562 64:146858 65:93.49 66:0.02 67:155268 68:0.49 
-1 1:0 2:0 3:0 4:0 5:0 6:4 7:0 8:0 9:0 10:0 11:0 12:0 13:0 14:0 15:0 16:0 17:5 18:0 19:0 20:2 21:7 22:0 23:0 24:0 25:0 26:0 27:2 28:3 29:0 30:0 31:2 32:2 33:0 34:0 35:2 36:2 37:0 38:2 39:0 40:1 41:1 42:0 43:0 44:0 45:0 46:9 47:0 48:0 49:0 50:0 51:0 52:0 53:18 54:7 55:0 56:0 57:354 58:5 63:84 64:3223.35 65:94.72 66:0.06 67:3287 68:0.48 
-1 1:0 2:2 3:0 4:0 5:0 6:6 7:0 8:0 9:0 10:1 11:0 12:0 13:0 14:0 15:0 16:0 17:0 18:0 19:0 20:1 21:1 22:0 23:2 24:2 25:0 26:4 27:3 28:4 29:2 30:0 31:0 32:1 33:0 34:1 35:4 36:3 37:2 38:0 39:2 40:5 41:5 42:0 43:2 44:4 45:1 46:18 47:0 48:0 49:18 50:0 51:5 52:18 53:49 54:13 55:0 56:0 57:663 58:5 63:676 64:222411 65:97.77 66:0.01 67:225707 68:0.5 
-1 1:1 2:0 3:1 4:0 5:0 6:8 7:0 8:0 9:0 10:0 11:0 12:0 13:0 14:0 15:0 16:0 17:1 18:0 19:0 20:4 21:2 22:1 23:0 24:6 25:0 26:1 27:8 28:14 29:0 30:2 31:0 32:1 33:2 34:0 35:2 36:8 37:0 38:0 39:1 40:6 41:1 42:11 43:2 44:0 45:0 46:8 47:0 48:0 49:2 50:0 51:3 52:4 53:28 54:7 55:0 56:0 57:554 58:5 63:1151 64:650745 65:98.5 66:0.01 67:656894 68:0.5 
-1 1:0 2:0 3:0 4:0 5:0 6:10 7:0 8:0 9:1 10:0 11:0 12:2 13:0 14:0 15:1 16:0 17:5 18:0 19:0 20:6 21:4 22:7 23:2 24:0 25:0 26:5 27:0 28:12 29:0 30:0 31:1 32:0 33:0 34:0 35:2 36:8 37:0 38:0 39:1 40:0 41:0 42:0 43:7 44:0 45:0 46:14 47:0 48:0 49:0 50:0 51:3 52:2 53:56 54:17 55:0 56:0 57:867 58:5 63:288 64:39168 65:95.44 66:0.02 67:40303 68:0.49 
-1 1:0 2:0 3:1 4:0 5:1 6:7 7:0 8:0 9:1 10:0 11:0 12:0 13:0 14:0 15:0 16:4 17:1 18:0 19:0 20:4 21:0 22:0 23:0 24:2 25:0 26:2 27:0 28:11 29:0 30:0 31:0 32:1 33:1 34:5 35:12 36:5 37:0 38:0 39:2 40:1 41:0 42:0 43:2 44:0 45:1 46:13 47:0 48:0 49:0 50:0 51:3 52:0 53:38 54:10 55:0 56:0 57:585 58:5 63:644 64:203058 65:98.38 66:0.01 67:204908 68:0.5 
-1 1:0 2:0 3:0 4:0 5:0 6:0 7:0 8:0 9:0 10:0 11:0 12:0 13:0 14:0 15:0 16:0 17:0 18:0 19:0 20:0 21:0 22:0 23:0 24:0 25:1 26:0 27:0 28:0 29:0 30:0 31:0 32:0 33:0 34:0 35:0 36:0 37:0 38:0 39:0 40:0 41:0 42:0 43:0 44:0 45:0 46:2 47:0 48:0 49:1 50:0 51:1 52:1 53:1 54:0 55:0 56:0 57:27 58:5 63:144 64:8951.17 65:88.16 66:0.07 67:9577 68:0.47 
-1 1:0 2:1 3:0 4:0 5:0 6:8 7:0 8:0 9:0 10:3 11:0 12:0 13:0 14:0 15:0 16:2 17:3 18:0 19:0 20:2 21:1 22:0 23:6 24:0 25:0 26:3 27:1 28:10 29:0 30:1 31:0 32:1 33:2 34:3 35:8 36:3 37:0 38:0 39:9 40:1 41:8 42:2 43:2 44:0 45:1 46:20 47:0 48:0 49:3 50:0 51:11 52:4 53:41 54:24 55:0 56:0 57:883 58:5 63:739 64:267574 65:98.39 66:0.01 67:270029 68:0.5 
-1 1:0 2:0 3:0 4:0 5:0 6:0 7:0 8:0 9:0 10:0 11:0 12:0 13:0 14:0 15:0 16:0 17:0 18:0 19:0 20:1 21:0 22:0 23:0 24:0 25:0 26:0 27:0 28:0 29:0 30:0 31:0 32:0 33:0 34:0 35:0 36:1 37:0 38:0 39:0 40:0 41:0 42:0 43:0 44:0 45:0 46:0 47:0 48:0 49:0 50:0 51:0 52:0 53:2 54:1 55:0 56:0 57:19 58:5 63:419 64:82139 65:94.25 66:0.02 67:85492 68:0.49 
-1 1:0 2:3 3:0 4:0 5:0 6:0 7:0 8:0 9:0 10:1 11:0 12:0 13:0 14:0 15:0 16:0 17:3 18:0 19:0 20:0 21:1 22:0 23:1 24:0 25:0 26:0 27:1 28:5 29:0 30:0 31:0 32:0 33:0 34:0 35:0 36:0 37:0 38:0 39:0 40:0 41:3 42:0 43:0 44:8 45:0 46:4 47:0 48:0 49:0 50:0 51:0 52:0 53:15 54:7 55:0 56:0 57:262 58:4 63:222 64:17150.1 65:70.55 66:0.09 67:22359 68:0.46 
-1 1:0 2:0 3:0 4:0 5:0 6:0 7:0 8:0 9:0 10:0 11:0 12:0 13:0 14:0 15:0 16:0 17:0 18:0 19:0 20:0 21:0 22:0 23:0 24:0 25:0 26:0 27:0 28:0 29:0 30:0 31:0 32:0 33:0 34:0 35:0 36:1 37:0 38:0 39:0 40:0 41:1 42:0 43:0 44:0 45:0 46:0 47:0 48:0 49:0 50:0 51:0 52:0 53:5 54:4 55:0 56:0 57:37 58:5 63:278 64:36276 65:94.9 66:0.03 67:37357 68:0.49 
